tree
version=v4
num_class=1
num_tree_per_iteration=1
label_index=0
max_feature_idx=3
objective=binary sigmoid:1
feature_names=score num_confs pattern_code bias_bull
feature_infos=[2:5] [2:5] [1:3] none
tree_sizes=553 557 555 558 555 561 561 560 558 558 560 564 563 566 462 563 562 562 563 565 565 463 463 567 566 569 565 569 566 568 571 465 572 575 572 571 463 572 573 572 574 465 570 573 574 575 464 572 570 573 466 571 571 572 465 574 572 571 573 572 573 461 572 573 573 573 465 575 576 576 464 572 573 572 572 575 467 572 575 573 576 576 466 574 570 574 576 575 465 572 578 577 579 577 467 577 577 574 575 575

Tree=0
num_leaves=4
num_cat=0
split_feature=0 0 2
split_gain=10.0704 8.55764 7.51338
threshold=2.5000000000000004 3.5000000000000004 2.0000000000000004
decision_type=2 2 2
left_child=2 -2 -1
right_child=1 -3 -4
leaf_value=-0.18031837086358873 -0.064667824537516738 -0.23307125164390224 -0.33005129509862002
leaf_weight=5.6868933886289605 6.4286620914936048 5.6868933886289597 8.159455731511116
leaf_count=23 26 23 33
internal_value=-0.210295 -0.143714 -0.268554
internal_weight=25.9619 12.1156 13.8463
internal_count=105 49 56
is_linear=0
shrinkage=1


Tree=1
num_leaves=4
num_cat=0
split_feature=0 0 2
split_gain=8.17165 6.83301 6.21458
threshold=2.5000000000000004 3.5000000000000004 2.0000000000000004
decision_type=2 2 2
left_child=2 -2 -1
right_child=1 -3 -4
leaf_value=0.026896236109549877 0.12967693211692985 -0.020552682049431111 -0.10961708018454806
leaf_weight=5.703512206673623 6.4932091236114484 5.672613337635994 8.0293407887220383
leaf_count=23 26 23 33
internal_value=-5.08853e-05 0.0596287 -0.0529205
internal_weight=25.8987 12.1658 13.7329
internal_count=105 49 56
is_linear=0
shrinkage=0.1


Tree=2
num_leaves=4
num_cat=0
split_feature=0 0 2
split_gain=6.66591 5.5307 5.1714
threshold=2.5000000000000004 3.5000000000000004 2.0000000000000004
decision_type=2 2 2
left_child=2 -2 -1
right_child=1 -3 -4
leaf_value=0.024149400650979671 0.11670151096228353 -0.018546028188192985 -0.10084253936434362
leaf_weight=5.7162959128618258 6.493137449026106 5.6585149317979813 7.863803967833519
leaf_count=23 26 23 33
internal_value=-8.33549e-05 0.0537224 -0.0482295
internal_weight=25.7318 12.1517 13.5801
internal_count=105 49 56
is_linear=0
shrinkage=0.1


Tree=3
num_leaves=4
num_cat=0
split_feature=0 0 2
split_gain=5.45791 4.52056 4.322
threshold=2.5000000000000004 3.5000000000000004 2.0000000000000004
decision_type=2 2 2
left_child=2 -2 -1
right_child=1 -3 -4
leaf_value=0.021695339158252835 0.10582445714893934 -0.016734159950324744 -0.093103622925152354
leaf_weight=5.7260440886020678 6.4466384649276716 5.6448161453008652 7.6756068617105484
leaf_count=23 26 23 33
internal_value=-0.000103855 0.0486088 -0.0440541
internal_weight=25.4931 12.0915 13.4017
internal_count=105 49 56
is_linear=0
shrinkage=0.1


Tree=4
num_leaves=4
num_cat=0
split_feature=0 0 2
split_gain=4.4804 3.72104 3.62302
threshold=2.5000000000000004 3.5000000000000004 2.0000000000000004
decision_type=2 2 2
left_child=2 -2 -1
right_child=1 -3 -4
leaf_value=0.019499339080504649 0.096487032449461579 -0.015097842253103601 -0.08617187290684343
leaf_weight=5.73339591920376 6.367480665445326 5.6316677778959274 7.474383607506752
leaf_count=23 26 23 33
internal_value=-0.000116274 0.0441159 -0.0403008
internal_weight=25.2069 11.9991 13.2078
internal_count=105 49 56
is_linear=0
shrinkage=0.1


Tree=5
num_leaves=4
num_cat=0
split_feature=0 0 2
split_gain=3.68436 3.07843 3.04311
threshold=2.5000000000000004 3.5000000000000004 2.0000000000000004
decision_type=2 2 2
left_child=2 -2 -1
right_child=1 -3 -4
leaf_value=0.017531731741733194 0.088317517801952322 -0.013619939225470496 -0.079884856957604972
leaf_weight=5.7388627529144305 6.2661258280277234 5.6191702485084534 7.2673607915639877
leaf_count=23 26 23 33
internal_value=-0.000123092 0.0401232 -0.0369008
internal_weight=24.8915 11.8853 13.0062
internal_count=105 49 56
is_linear=0
shrinkage=0.1


Tree=6
num_leaves=4
num_cat=0
split_feature=0 2 0
split_gain=3.03303 2.55897 2.55581
threshold=2.5000000000000004 2.0000000000000004 3.5000000000000004
decision_type=2 2 2
left_child=1 -1 -2
right_child=2 -3 -4
leaf_value=0.015766959563387761 0.081060259438852353 -0.074125151950161713 -0.012285131189770968
leaf_weight=5.7428517490625399 6.1505216956138593 7.0599018037319183 5.6073835343122482
leaf_count=23 26 33 23
internal_value=-0.000125955 -0.0338028 0.0365435
internal_weight=24.5607 12.8028 11.7579
internal_count=105 56 49
is_linear=0
shrinkage=0.1


Tree=7
num_leaves=4
num_cat=0
split_feature=2 0 0
split_gain=2.55972 2.06193 0.353424
threshold=2.0000000000000004 2.5000000000000004 2.5000000000000004
decision_type=2 2 2
left_child=2 -2 -1
right_child=1 -3 -4
leaf_value=0.014182856984345418 -0.068806795924110417 0.014734267008832914 0.048309782873647948
leaf_weight=5.7456884980201721 6.8559262901544571 5.1916899383068085 6.4313326925039291
leaf_count=23 33 22 27
internal_value=-0.000125988 -0.0328064 0.0322071
internal_weight=24.2246 12.0476 12.177
internal_count=105 55 50
is_linear=0
shrinkage=0.1


Tree=8
num_leaves=4
num_cat=0
split_feature=2 0 0
split_gain=2.09652 1.73471 0.2876
threshold=2.0000000000000004 2.5000000000000004 2.5000000000000004
decision_type=2 2 2
left_child=2 -2 -1
right_child=1 -3 -4
leaf_value=0.012760002822276323 -0.06386627533379742 0.013283648434758089 0.043554599474668408
leaf_weight=5.7476314157247543 6.6582376509904861 5.1832413673400879 6.4206726104021072
leaf_count=23 33 22 27
internal_value=-0.000141395 -0.0300963 0.0290089
internal_weight=24.0098 11.8415 12.1683
internal_count=105 55 50
is_linear=0
shrinkage=0.1


Tree=9
num_leaves=4
num_cat=0
split_feature=2 0 0
split_gain=1.7173 1.45878 0.234406
threshold=2.0000000000000004 2.5000000000000004 2.5000000000000004
decision_type=2 2 2
left_child=2 -2 -1
right_child=1 -3 -4
leaf_value=0.011481341668548075 -0.059256293511085273 0.011974821673242183 0.03929647682359623
leaf_weight=5.7488861382007599 6.4687718600034714 5.1752248406410217 6.4055581837892532
leaf_count=23 33 22 27
internal_value=-0.000152206 -0.0275973 0.0261403
internal_weight=23.7984 11.644 12.1544
internal_count=105 55 50
is_linear=0
shrinkage=0.1


Tree=10
num_leaves=4
num_cat=0
split_feature=2 0 0
split_gain=1.40654 1.22577 0.191249
threshold=2.0000000000000004 2.5000000000000004 2.5000000000000004
decision_type=2 2 2
left_child=2 -2 -1
right_child=1 -3 -4
leaf_value=0.010331823056225644 -0.0549413621513304 0.010793958181921422 0.035472287607740592
leaf_weight=5.7496154606342316 6.2888015359640121 5.1676750779151917 6.3874771445989609
leaf_count=23 33 22 27
internal_value=-0.000159078 -0.0252901 0.0235627
internal_weight=23.5936 11.4565 12.1371
internal_count=105 55 50
is_linear=0
shrinkage=0.1


Tree=11
num_leaves=4
num_cat=0
split_feature=2 0 0
split_gain=1.15174 1.02889 0.156137
threshold=2.0000000000000004 2.5000000000000004 2.5000000000000004
decision_type=2 2 2
left_child=2 -2 -1
right_child=1 -3 -4
leaf_value=0.0092980714104943969 -0.050894683133778207 0.0097285991044199459 0.032030258176158878
leaf_weight=5.7499479055404663 6.1190864145755768 5.1606086790561676 6.3675701916217804
leaf_count=23 33 22 27
internal_value=-0.000162632 -0.0231587 0.0212435
internal_weight=23.3972 11.2797 12.1175
internal_count=105 55 50
is_linear=0
shrinkage=0.1


Tree=12
num_leaves=4
num_cat=0
split_feature=2 0 0
split_gain=0.942791 0.862528 0.127512
threshold=2.0000000000000004 2.5000000000000004 2.5000000000000004
decision_type=2 2 2
left_child=2 -2 -1
right_child=1 -3 -4
leaf_value=0.0083682067007964985 -0.047095658624674762 0.0087675322270624328 0.0289271660607219
leaf_weight=5.7499845772981644 5.9600016921758652 5.1540291905403137 6.3467026948928833
leaf_count=23 33 22 27
internal_value=-0.000163412 -0.0211896 0.0191548
internal_weight=23.2107 11.114 12.0967
internal_count=105 55 50
is_linear=0
shrinkage=0.1


Tree=13
num_leaves=4
num_cat=0
split_feature=2 0 0
split_gain=0.771429 0.722025 0.104143
threshold=2.0000000000000004 2.5000000000000004 2.5000000000000004
decision_type=2 2 2
left_child=2 -2 -1
right_child=1 -3 -4
leaf_value=0.0075316319425915434 -0.043528279732650152 0.0079006455903773438 0.026126363684463128
leaf_weight=5.7498049885034561 5.8116289973258972 5.1479293704032898 6.3255259394645691
leaf_count=23 33 22 27
internal_value=-0.000161921 -0.0193711 0.0172723
internal_weight=23.0349 10.9596 12.0753
internal_count=105 55 50
is_linear=0
shrinkage=0.1


Tree=14
num_leaves=3
num_cat=0
split_feature=0 2
split_gain=0.676366 2.51129
threshold=3.5000000000000004 2.0000000000000004
decision_type=2 2
left_child=1 -1
right_child=-2 -3
leaf_value=0.049243003198575781 -0.029960820637708874 -0.027311338596450564
leaf_weight=8.3094284832477605 5.7129654288291922 8.8477290719747543
leaf_count=35 23 47
internal_value=-0.000158602 0.0097649
internal_weight=22.8701 17.1572
internal_count=105 82
is_linear=0
shrinkage=0.1


Tree=15
num_leaves=4
num_cat=0
split_feature=0 0 2
split_gain=0.705752 2.24944 0.451078
threshold=2.5000000000000004 3.5000000000000004 2.0000000000000004
decision_type=2 2 2
left_child=2 -2 -1
right_child=1 -3 -4
leaf_value=0.0018587410190057481 0.061770105857198124 -0.027029237009280706 -0.038050481486467627
leaf_weight=5.743276387453081 5.7107586562633497 5.7000269442796707 5.5871888101100922
leaf_count=23 26 23 33
internal_value=-0.000142172 0.0174122 -0.017821
internal_weight=22.7413 11.4108 11.3305
internal_count=105 49 56
is_linear=0
shrinkage=0.1


Tree=16
num_leaves=4
num_cat=0
split_feature=0 0 2
split_gain=0.580128 1.86183 0.377568
threshold=2.5000000000000004 3.5000000000000004 2.0000000000000004
decision_type=2 2 2
left_child=2 -2 -1
right_child=1 -3 -4
leaf_value=0.0016729749451890115 0.056893542130889131 -0.024388597119621533 -0.035044356029298306
leaf_weight=5.7429062426090258 5.586889445781706 5.6862157434225082 5.46637362241745
leaf_count=23 26 23 33
internal_value=-0.000123595 0.0158944 -0.0162328
internal_weight=22.4824 11.2731 11.2093
internal_count=105 49 56
is_linear=0
shrinkage=0.1


Tree=17
num_leaves=4
num_cat=0
split_feature=0 0 2
split_gain=0.476588 1.54073 0.3154
threshold=2.5000000000000004 3.5000000000000004 2.0000000000000004
decision_type=2 2 2
left_child=2 -2 -1
right_child=1 -3 -4
leaf_value=0.0015057743221971052 0.052386281214156019 -0.022007627599413354 -0.032231436553715596
leaf_weight=5.7425648868083972 5.4672724008560163 5.6720298826694489 5.3551419228315353
leaf_count=23 26 23 33
internal_value=-0.000106793 0.0145056 -0.0147739
internal_weight=22.237 11.1393 11.0977
internal_count=105 49 56
is_linear=0
shrinkage=0.1


Tree=18
num_leaves=4
num_cat=0
split_feature=0 0 2
split_gain=0.391271 1.27447 0.262941
threshold=2.5000000000000004 3.5000000000000004 2.0000000000000004
decision_type=2 2 2
left_child=2 -2 -1
right_child=1 -3 -4
leaf_value=0.0013552769781670533 0.04820999320294278 -0.019859264506779734 -0.029603756639680012
leaf_weight=5.7422506064176577 5.3529729247093183 5.6578388959169388 5.2529882043600082
leaf_count=23 26 23 33
internal_value=-9.17736e-05 0.013233 -0.0134354
internal_weight=22.0061 11.0108 10.9952
internal_count=105 49 56
is_linear=0
shrinkage=0.1


Tree=19
num_leaves=4
num_cat=0
split_feature=2 0 0
split_gain=0.349978 0.189888 0.12253
threshold=2.0000000000000004 2.5000000000000004 2.5000000000000004
decision_type=2 2 2
left_child=2 -2 -1
right_child=1 -3 -4
leaf_value=0.0012198115469818421 -0.027153675688632792 0.0003341891073090593 0.021664706106919736
leaf_weight=5.7419623732566833 5.1593754887580872 4.8998416364192963 5.9887465685606003
leaf_count=23 33 22 27
internal_value=-7.84761e-05 -0.0137643 0.0116573
internal_weight=21.7899 10.0592 11.7307
internal_count=105 55 50
is_linear=0
shrinkage=0.1


Tree=20
num_leaves=4
num_cat=0
split_feature=2 0 0
split_gain=0.285326 0.157967 0.099732
threshold=2.0000000000000004 2.5000000000000004 2.5000000000000004
decision_type=2 2 2
left_child=2 -2 -1
right_child=1 -3 -4
leaf_value=0.0010978834459445693 -0.0248736296136189 0.00030078686902341653 0.019555851448489522
leaf_weight=5.7416984736919403 5.0737549960613251 4.8995749950408936 5.9720217436552048
leaf_count=23 33 22 27
internal_value=-7.54962e-05 -0.0125063 0.0105083
internal_weight=21.6871 9.97333 11.7137
internal_count=105 55 50
is_linear=0
shrinkage=0.1


Tree=21
num_leaves=3
num_cat=0
split_feature=0 2
split_gain=0.323318 1.49506
threshold=3.5000000000000004 2.0000000000000004
decision_type=2 2
left_child=1 -1
right_child=-2 -3
leaf_value=0.037836452387843229 -0.020607780330457483 -0.023425110173661383
leaf_weight=7.9709053933620471 5.6578137129545203 7.9637276828289032
leaf_count=35 23 47
internal_value=-7.20344e-05 0.00721947
internal_weight=21.5924 15.9346
internal_count=105 82
is_linear=0
shrinkage=0.1


Tree=22
num_leaves=3
num_cat=0
split_feature=0 2
split_gain=0.262907 1.21973
threshold=3.5000000000000004 2.0000000000000004
decision_type=2 2
left_child=1 -1
right_child=-2 -3
leaf_value=0.034294766778387539 -0.018595586287472543 -0.021213260992956322
leaf_weight=7.9175688326358813 5.6437985301017752 7.9172391444444656
leaf_count=35 23 47
internal_value=-6.37391e-05 0.00654133
internal_weight=21.4786 15.8348
internal_count=105 82
is_linear=0
shrinkage=0.1


Tree=23
num_leaves=4
num_cat=0
split_feature=0 0 2
split_gain=0.300798 0.953243 0.0419877
threshold=2.5000000000000004 3.5000000000000004 2.0000000000000004
decision_type=2 2 2
left_child=2 -2 -1
right_child=1 -3 -4
leaf_value=-0.0062372342813040941 0.042704047407136819 -0.016778734076899466 -0.018882186116405901
leaf_weight=5.7180935144424456 5.1663362085819227 5.6301793605089188 4.856013759970665
leaf_count=23 26 23 33
internal_value=-5.62015e-05 0.0116849 -0.0120443
internal_weight=21.3706 10.7965 10.5741
internal_count=105 49 56
is_linear=0
shrinkage=0.1


Tree=24
num_leaves=4
num_cat=0
split_feature=0 0 2
split_gain=0.246085 0.787126 0.0351261
threshold=2.5000000000000004 3.5000000000000004 2.0000000000000004
decision_type=2 2 2
left_child=2 -2 -1
right_child=1 -3 -4
leaf_value=-0.005610812693462322 0.039214641464243805 -0.015137934187676828 -0.017213492838935394
leaf_weight=5.7206954956054705 5.0687410533428174 5.6171070039272308 4.7973065972328186
leaf_count=23 26 23 33
internal_value=-4.42696e-05 0.0106437 -0.0109028
internal_weight=21.2039 10.6858 10.518
internal_count=105 49 56
is_linear=0
shrinkage=0.1


Tree=25
num_leaves=4
num_cat=0
split_feature=0 0 2
split_gain=0.201199 0.649378 0.0293004
threshold=2.5000000000000004 3.5000000000000004 2.0000000000000004
decision_type=2 2 2
left_child=2 -2 -1
right_child=1 -3 -4
leaf_value=-0.0050476351929069092 0.035974867876013658 -0.013656016138305544 -0.015675977568067861
leaf_weight=5.7229424118995684 4.9776463210582715 5.6046806275844574 4.7439775764942169
leaf_count=23 26 23 33
internal_value=-3.4265e-05 0.00968904 -0.00986478
internal_weight=21.0492 10.5823 10.4669
internal_count=105 49 56
is_linear=0
shrinkage=0.1


Tree=26
num_leaves=4
num_cat=0
split_feature=0 0 2
split_gain=0.1644 0.535229 0.0243757
threshold=2.5000000000000004 3.5000000000000004 2.0000000000000004
decision_type=2 2 2
left_child=2 -2 -1
right_child=1 -3 -4
leaf_value=-0.0045412485025178948 0.032968575729502479 -0.01231758821226275 -0.014261879360748972
leaf_weight=5.7248880714178103 4.8929967582225782 5.5929607599973679 4.6955797076225281
leaf_count=23 26 23 33
internal_value=-2.5953e-05 0.00881401 -0.00892147
internal_weight=20.9064 10.486 10.4205
internal_count=105 49 56
is_linear=0
shrinkage=0.1


Tree=27
num_leaves=4
num_cat=0
split_feature=0 0 2
split_gain=0.13425 0.440712 0.0202292
threshold=2.5000000000000004 3.5000000000000004 2.0000000000000004
decision_type=2 2 2
left_child=2 -2 -1
right_child=1 -3 -4
leaf_value=-0.0040858509857242481 0.030181430902923939 -0.011108846978997569 -0.012963521383941745
leaf_weight=5.7265770286321658 4.8146354258060438 5.5819786339998245 4.6516940295696259
leaf_count=23 26 23 33
internal_value=-1.91113e-05 0.00801254 -0.00806495
internal_weight=20.7749 10.3966 10.3783
internal_count=105 49 56
is_linear=0
shrinkage=0.1


Tree=28
num_leaves=4
num_cat=0
split_feature=0 0 2
split_gain=0.109565 0.362525 0.0167505
threshold=2.5000000000000004 3.5000000000000004 2.0000000000000004
decision_type=2 2 2
left_child=2 -2 -1
right_child=1 -3 -4
leaf_value=-0.0036762621709399619 0.027600412728912602 -0.010017344501776035 -0.011773348093848625
leaf_weight=5.7280469834804553 4.7423315048217756 5.571742445230484 4.6119301021099091
leaf_count=23 26 23 33
internal_value=-1.35285e-05 0.00727901 -0.0072878
internal_weight=20.6541 10.3141 10.34
internal_count=105 49 56
is_linear=0
shrinkage=0.1


Tree=29
num_leaves=4
num_cat=0
split_feature=2 0 0
split_gain=0.101969 0.10832 0.007494
threshold=2.0000000000000004 2.5000000000000004 2.5000000000000004
decision_type=2 2 2
left_child=1 -1 -2
right_child=2 -3 -4
leaf_value=-0.0033078596271839903 -0.010684022375163525 0.016261731419908342 -0.0049843001106859852
leaf_weight=5.7293287813663483 4.5759250223636627 5.5862254947423935 4.6518241465091705
leaf_count=23 33 27 22
internal_value=-9.0292e-06 0.00635319 -0.00781072
internal_weight=20.5433 11.3156 9.22775
internal_count=105 50 55
is_linear=0
shrinkage=0.1


Tree=30
num_leaves=4
num_cat=0
split_feature=2 0 0
split_gain=0.082801 0.0879522 0.0062336
threshold=2.0000000000000004 2.5000000000000004 2.5000000000000004
decision_type=2 2 2
left_child=1 -1 -2
right_child=2 -3 -4
leaf_value=-0.0029764566171185782 -0.0096884099992110145 0.014665245650144029 -0.0044817759793146575
leaf_weight=5.730449840426445 4.5433434247970581 5.5755071640014648 4.6558455228805542
leaf_count=23 33 27 22
internal_value=-8.50926e-06 0.00572351 -0.00705326
internal_weight=20.5051 11.306 9.19919
internal_count=105 50 55
is_linear=0
shrinkage=0.1


Tree=31
num_leaves=3
num_cat=0
split_feature=0 2
split_gain=0.0882186 0.931053
threshold=3.5000000000000004 2.0000000000000004
decision_type=2 2
left_child=1 -1
right_child=-2 -3
leaf_value=0.028494652568275082 -0.010741517431417186 -0.021514917172046073
leaf_weight=7.6028436720371264 5.5726914703845969 7.2946745902299881
leaf_count=35 23 47
internal_value=-7.96734e-06 0.00400712
internal_weight=20.4702 14.8975
internal_count=105 82
is_linear=0
shrinkage=0.1


Tree=32
num_leaves=4
num_cat=0
split_feature=0 0 2
split_gain=0.0744576 0.301726 0.000363786
threshold=2.5000000000000004 3.5000000000000004 2.0000000000000004
decision_type=2 2 2
left_child=2 -2 -1
right_child=1 -3 -4
leaf_value=-0.0055353654846093435 0.024836268918352111 -0.0096856356532102755 -0.006741023211575034
leaf_weight=5.721001550555231 4.6465505361556989 5.5627281069755554 4.4487123191356659
leaf_count=23 26 23 33
internal_value=-6.49132e-06 0.00602632 -0.00606278
internal_weight=20.379 10.2093 10.1697
internal_count=105 49 56
is_linear=0
shrinkage=0.1


Tree=33
num_leaves=4
num_cat=0
split_feature=0 0 2
split_gain=0.0606512 0.247545 0.000311236
threshold=2.5000000000000004 3.5000000000000004 2.0000000000000004
decision_type=2 2 2
left_child=2 -2 -1
right_child=1 -3 -4
leaf_value=-0.0049798048413313839 0.022658937332429425 -0.0087323703503878539 -0.0060963341847036605
leaf_weight=5.7232073396444338 4.5870020389556867 5.5534954965114594 4.4283754974603653
leaf_count=23 26 23 33
internal_value=-2.75478e-06 0.00546733 -0.00546686
internal_weight=20.2921 10.1405 10.1516
internal_count=105 49 56
is_linear=0
shrinkage=0.1


Tree=34
num_leaves=4
num_cat=0
split_feature=0 0 2
split_gain=0.0493836 0.202909 0.000264573
threshold=2.5000000000000004 3.5000000000000004 2.0000000000000004
decision_type=2 2 2
left_child=2 -2 -1
right_child=1 -3 -4
leaf_value=-0.0044802448435591769 0.020651973867375266 -0.0078718821484547227 -0.0055108087730391811
leaf_weight=5.7251176983118075 4.532481372356413 5.544970914721489 4.4100174307823181
leaf_count=23 26 23 33
internal_value=1.30488e-07 0.00495714 -0.00492867
internal_weight=20.2126 10.0775 10.1351
internal_count=105 49 56
is_linear=0
shrinkage=0.1


Tree=35
num_leaves=4
num_cat=0
split_feature=2 0 0
split_gain=0.0436106 0.0791747 3.71897e-05
threshold=2.0000000000000004 2.5000000000000004 2.5000000000000004
decision_type=2 2 2
left_child=1 -1 -2
right_child=2 -3 -4
leaf_value=-0.0040309849235900495 -0.00497947464338194 0.012817353457826877 -0.0053866664106855013
leaf_weight=5.7267768383026123 4.3934502750635147 5.4373362064361572 4.5824442207813263
leaf_count=23 33 27 22
internal_value=2.31064e-06 0.00417478 -0.00518736
internal_weight=20.14 11.1641 8.97589
internal_count=105 50 55
is_linear=0
shrinkage=0.1


Tree=36
num_leaves=3
num_cat=0
split_feature=0 2
split_gain=0.0460802 0.787209
threshold=3.5000000000000004 2.0000000000000004
decision_type=2 2
left_child=1 -1
right_child=-2 -3
leaf_value=0.02560766647843565 -0.0077607381922460018 -0.020876796731740335
leaf_weight=7.474923178553583 5.5409405380487433 7.1068769991397858
leaf_count=35 23 47
internal_value=2.22258e-06 0.00295207
internal_weight=20.1227 14.5818
internal_count=105 82
is_linear=0
shrinkage=0.1


Tree=37
num_leaves=4
num_cat=0
split_feature=0 0 2
split_gain=0.0423709 0.166618 0.00343368
threshold=2.5000000000000004 3.5000000000000004 2.0000000000000004
decision_type=2 2 2
left_child=2 -2 -1
right_child=1 -3 -4
leaf_value=-0.0061963071312399996 0.018959415882439365 -0.0069949765184570585 -0.0024599564680369544
leaf_weight=5.7182665914297122 4.4728813469409925 5.5331965684890747 4.316082626581192
leaf_count=23 26 23 33
internal_value=2.45135e-06 0.00460706 -0.00458919
internal_weight=20.0404 10.0061 10.0343
internal_count=105 49 56
is_linear=0
shrinkage=0.1


Tree=38
num_leaves=4
num_cat=0
split_feature=0 0 2
split_gain=0.0344533 0.136352 0.00276817
threshold=2.5000000000000004 3.5000000000000004 2.0000000000000004
decision_type=2 2 2
left_child=2 -2 -1
right_child=1 -3 -4
leaf_value=-0.0055740199054903697 0.017248302462541661 -0.0063040237172145401 -0.0022179396371302821
leaf_weight=5.7208449244499224 4.4274476766586286 5.5260899662971497 4.3087537586688995
leaf_count=23 26 23 33
internal_value=4.23833e-06 0.00417232 -0.00413224
internal_weight=19.9831 9.95354 10.0296
internal_count=105 49 56
is_linear=0
shrinkage=0.1


Tree=39
num_leaves=4
num_cat=0
split_feature=0 0 2
split_gain=0.0280065 0.111494 0.00223278
threshold=2.5000000000000004 3.5000000000000004 2.0000000000000004
decision_type=2 2 2
left_child=2 -2 -1
right_child=1 -3 -4
leaf_value=-0.0050145601755610166 0.015678130743134146 -0.0056806854195283205 -0.0019993817654816305
leaf_weight=5.7230719625949877 4.3860490322113019 5.5195824354887009 4.302150696516037
leaf_count=23 26 23 33
internal_value=5.50445e-06 0.00377664 -0.00372065
internal_weight=19.9309 9.90563 10.0252
internal_count=105 49 56
is_linear=0
shrinkage=0.1


Tree=40
num_leaves=4
num_cat=0
split_feature=2 0 0
split_gain=0.0228085 0.0676031 0.00328431
threshold=2.0000000000000004 2.5000000000000004 2.5000000000000004
decision_type=2 2 2
left_child=1 -1 -2
right_child=2 -3 -4
leaf_value=-0.0045114905466931629 -0.0018020661538869533 0.011139366458016615 -0.0056607670305154033
leaf_weight=5.7250001430511475 4.2962026298046112 5.3287367820739746 4.5332750976085663
leaf_count=23 33 27 22
internal_value=6.36779e-06 0.00303341 -0.00378322
internal_weight=19.8832 11.0537 8.82948
internal_count=105 50 55
is_linear=0
shrinkage=0.1


Tree=41
num_leaves=3
num_cat=0
split_feature=0 2
split_gain=0.0245819 0.693978
threshold=3.5000000000000004 2.0000000000000004
decision_type=2 2
left_child=1 -1
right_child=-2 -3
leaf_value=0.023582684318136819 -0.0056679247821273381 -0.020398878072707086
leaf_weight=7.3742757737636584 5.5166229456663123 6.9866005331277847
leaf_count=35 23 47
internal_value=5.96661e-06 0.00218555
internal_weight=19.8775 14.3609
internal_count=105 82
is_linear=0
shrinkage=0.1


Tree=42
num_leaves=4
num_cat=0
split_feature=0 0 2
split_gain=0.0248483 0.0940128 0.0113528
threshold=2.5000000000000004 3.5000000000000004 2.0000000000000004
decision_type=2 2 2
left_child=2 -2 -1
right_child=1 -3 -4
leaf_value=-0.0064260129210040266 0.014566390950854781 -0.005106921913974675 0.00040723798576613519
leaf_weight=5.7172881066799182 4.3436222374439222 5.5106976479291916 4.2304080426692963
leaf_count=23 26 23 33
internal_value=5.63643e-06 0.00356475 -0.00352007
internal_weight=19.802 9.85432 9.9477
internal_count=105 49 56
is_linear=0
shrinkage=0.1


Tree=43
num_leaves=4
num_cat=0
split_feature=0 0 2
split_gain=0.0201796 0.0767746 0.00919018
threshold=2.5000000000000004 3.5000000000000004 2.0000000000000004
decision_type=2 2 2
left_child=2 -2 -1
right_child=1 -3 -4
leaf_value=-0.0057805198294063279 0.013221258266292916 -0.0046009896812458633 0.00036640371336761775
leaf_weight=5.7200011312961596 4.3089031279087049 5.5052921772003174 4.2316103428602219
leaf_count=23 26 23 33
internal_value=6.33551e-06 0.00322383 -0.00316673
internal_weight=19.7658 9.8142 9.95161
internal_count=105 49 56
is_linear=0
shrinkage=0.1


Tree=44
num_leaves=4
num_cat=0
split_feature=0 0 2
split_gain=0.0163845 0.0626542 0.00744017
threshold=2.5000000000000004 3.5000000000000004 2.0000000000000004
decision_type=2 2 2
left_child=2 -2 -1
right_child=1 -3 -4
leaf_value=-0.0052002202146346609 0.011991725048311372 -0.0041448059041813605 0.00032968141419126426
leaf_weight=5.7223422974348086 4.2773695290088636 5.5003685504198074 4.2326926589012146
leaf_count=23 26 23 33
internal_value=6.74407e-06 0.00291428 -0.00284901
internal_weight=19.7328 9.77774 9.95503
internal_count=105 49 56
is_linear=0
shrinkage=0.1


Tree=45
num_leaves=4
num_cat=0
split_feature=0 2 2
split_gain=0.0133006 0.0552013 0.00602382
threshold=2.5000000000000004 2.0000000000000004 2.0000000000000004
decision_type=2 2 2
left_child=2 -2 -1
right_child=1 -3 -4
leaf_value=-0.0046784491973002476 0.0096084768422632204 -0.0054880633630112891 0.00029663884118311221
leaf_weight=5.7243681550025958 5.2423306256532651 4.5023148655891418 4.2336663007736206
leaf_count=23 27 22 33
internal_value=6.92938e-06 0.00263343 -0.00256329
internal_weight=19.7027 9.74465 9.95803
internal_count=105 49 56
is_linear=0
shrinkage=0.1


Tree=46
num_leaves=3
num_cat=0
split_feature=0 2
split_gain=0.0134303 0.629128
threshold=3.5000000000000004 2.0000000000000004
decision_type=2 2
left_child=1 -1
right_child=-2 -3
leaf_value=0.02211702257969346 -0.0041900817455860044 -0.019986495818933272
leaf_weight=7.2938221246004122 5.4982092529535285 6.9123070538043976
leaf_count=35 23 47
internal_value=6.43951e-06 0.00163062
internal_weight=19.7043 14.2061
internal_count=105 82
is_linear=0
shrinkage=0.1


Tree=47
num_leaves=4
num_cat=0
split_feature=0 0 2
split_gain=0.0151638 0.0545653 0.0183184
threshold=2.5000000000000004 3.5000000000000004 2.0000000000000004
decision_type=2 2 2
left_child=2 -2 -1
right_child=1 -3 -4
leaf_value=-0.0064292111919681746 0.011318356626974529 -0.0037743449543849493 0.0022833890205087959
leaf_weight=5.7172743976116198 4.2474465072154981 5.4936926066875458 4.1756942868232727
leaf_count=23 26 23 33
internal_value=5.91793e-06 0.00280655 -0.00275174
internal_weight=19.6341 9.74114 9.89297
internal_count=105 49 56
is_linear=0
shrinkage=0.1


Tree=48
num_leaves=4
num_cat=0
split_feature=0 0 2
split_gain=0.0123039 0.0444867 0.0148305
threshold=2.5000000000000004 3.5000000000000004 2.0000000000000004
decision_type=2 2 2
left_child=2 -2 -1
right_child=1 -3 -4
leaf_value=-0.0057833899243310326 0.010254728498217916 -0.0033995871189272508 0.0020515800790574306
leaf_weight=5.719989478588106 4.220671594142912 5.4895882457494736 4.1823976635932922
leaf_count=23 26 23 33
internal_value=6.07271e-06 0.00253541 -0.00247419
internal_weight=19.6126 9.71026 9.90239
internal_count=105 49 56
is_linear=0
shrinkage=0.1


Tree=49
num_leaves=4
num_cat=0
split_feature=0 2 2
split_gain=0.00998197 0.0396103 0.0120075
threshold=2.5000000000000004 2.0000000000000004 2.0000000000000004
decision_type=2 2 2
left_child=2 -2 -1
right_child=1 -3 -4
leaf_value=-0.0052027989098795725 0.0082478358716868601 -0.0045765587725939529 0.0018436134025195151
leaf_weight=5.7223323583602923 5.1839367449283582 4.4983327090740204 4.1884244084358215
leaf_count=23 27 22 33
internal_value=6.07697e-06 0.00228969 -0.00222489
internal_weight=19.593 9.68227 9.91076
internal_count=105 49 56
is_linear=0
shrinkage=0.1


Tree=50
num_leaves=3
num_cat=0
split_feature=0 2
split_gain=0.00915276 0.562593
threshold=3.5000000000000004 2.0000000000000004
decision_type=2 2
left_child=1 -1
right_child=-2 -3
leaf_value=0.020815821218283542 -0.0034596811242108582 -0.019130660768545776
leaf_weight=7.2362664639949816 5.4879091978073111 6.8754876255989075
leaf_count=35 23 47
internal_value=5.60172e-06 0.00135321
internal_weight=19.5997 14.1118
internal_count=105 82
is_linear=0
shrinkage=0.1


Tree=51
num_leaves=4
num_cat=0
split_feature=0 0 2
split_gain=0.0116324 0.0394362 0.0258431
threshold=2.5000000000000004 3.5000000000000004 2.0000000000000004
decision_type=2 2 2
left_child=2 -2 -1
right_child=1 -3 -4
leaf_value=-0.0067709624553185729 0.0097638652083079369 -0.003115982097991524 0.0036054658988349912
leaf_weight=5.7157914191484469 4.1961974501609784 5.484127476811409 4.1377719193696976
leaf_count=23 26 23 33
internal_value=5.11161e-06 0.00246713 -0.00241363
internal_weight=19.5339 9.68032 9.85356
internal_count=105 49 56
is_linear=0
shrinkage=0.1


Tree=52
num_leaves=4
num_cat=0
split_feature=0 0 2
split_gain=0.00943406 0.0321262 0.0209146
threshold=2.5000000000000004 3.5000000000000004 2.0000000000000004
decision_type=2 2 2
left_child=2 -2 -1
right_child=1 -3 -4
leaf_value=-0.0060905859800739351 0.0088383884909858188 -0.0028062407519878936 0.0032362131444944723
leaf_weight=5.7187121361494082 4.1732915639877302 5.4806972742080688 4.1483113467693329
leaf_count=23 26 23 33
internal_value=5.0985e-06 0.00222758 -0.0021694
internal_weight=19.521 9.65399 9.86702
internal_count=105 49 56
is_linear=0
shrinkage=0.1


Tree=53
num_leaves=4
num_cat=0
split_feature=0 2 2
split_gain=0.00765042 0.0276041 0.0169277
threshold=2.5000000000000004 2.0000000000000004 2.0000000000000004
decision_type=2 2 2
left_child=2 -2 -1
right_child=1 -3 -4
leaf_value=-0.005478972377334774 0.0070222033202680632 -0.0037089887361011504 0.0029055872687688326
leaf_weight=5.7212294638156909 5.1328273415565473 4.4973150789737701 4.157782718539238
leaf_count=23 27 22 33
internal_value=5.00322e-06 0.00201069 -0.00195016
internal_weight=19.5092 9.63014 9.87901
internal_count=105 49 56
is_linear=0
shrinkage=0.1


Tree=54
num_leaves=3
num_cat=0
split_feature=0 2
split_gain=0.00630847 0.513404
threshold=3.5000000000000004 2.0000000000000004
decision_type=2 2
left_child=1 -1
right_child=-2 -3
leaf_value=0.019802330617447211 -0.0028731333299649889 -0.018453952315871706
leaf_weight=7.1862674355506915 5.4794208258390418 6.8534294664859772
leaf_count=35 23 47
internal_value=4.5533e-06 0.00112766
internal_weight=19.5191 14.0397
internal_count=105 82
is_linear=0
shrinkage=0.1


Tree=55
num_leaves=4
num_cat=0
split_feature=0 2 0
split_gain=0.00912534 0.0311841 0.0290026
threshold=2.5000000000000004 2.0000000000000004 3.5000000000000004
decision_type=2 2 2
left_child=1 -1 -2
right_child=2 -3 -4
leaf_value=-0.0069179256014172191 0.0084938207068729586 0.0045010815335661189 -0.0025873990841345867
leaf_weight=5.7151440083980578 4.1531658470630628 4.1123758479952812 5.4762460589408875
leaf_count=23 26 33 23
internal_value=4.12244e-06 -0.00213958 0.00219193
internal_weight=19.4569 9.82752 9.62941
internal_count=105 56 49
is_linear=0
shrinkage=0.1


Tree=56
num_leaves=4
num_cat=0
split_feature=0 2 0
split_gain=0.00739825 0.0252275 0.0236108
threshold=2.5000000000000004 2.0000000000000004 3.5000000000000004
decision_type=2 2 2
left_child=1 -1 -2
right_child=2 -3 -4
leaf_value=-0.0062226623362916789 0.0076830160166367961 0.0040373825078367535 -0.002329950487714972
leaf_weight=5.7181552052497882 4.1334043741226179 4.1254951804876328 5.473370373249054
leaf_count=23 26 33 23
internal_value=4.02989e-06 -0.00192266 0.00197822
internal_weight=19.4504 9.84365 9.60677
internal_count=105 56 49
is_linear=0
shrinkage=0.1


Tree=57
num_leaves=4
num_cat=0
split_feature=0 2 0
split_gain=0.00599769 0.0204118 0.0192126
threshold=2.5000000000000004 2.0000000000000004 3.5000000000000004
decision_type=2 2 2
left_child=1 -1 -2
right_child=2 -3 -4
leaf_value=-0.0055977180513954051 0.0069464243729491009 0.0036227138453039376 -0.0020980104509769198
leaf_weight=5.7207486182451266 4.1155282258987409 4.13728067278862 5.4707671701908112
leaf_count=23 26 33 23
internal_value=3.88417e-06 -0.00172803 0.00178489
internal_weight=19.4443 9.85803 9.5863
internal_count=105 56 49
is_linear=0
shrinkage=0.1


Tree=58
num_leaves=4
num_cat=0
split_feature=0 2 2
split_gain=0.00486194 0.0197655 0.0165174
threshold=2.5000000000000004 2.0000000000000004 2.0000000000000004
decision_type=2 2 2
left_child=2 -2 -1
right_child=1 -3 -4
leaf_value=-0.0050358629843355292 0.0058827330647860396 -0.003224956012975197 0.0032516547310653277
leaf_weight=5.7229886800050753 5.0792746692895872 4.4885035157203674 4.1478697657585144
leaf_count=23 27 22 33
internal_value=3.70623e-06 0.00161007 -0.00155333
internal_weight=19.4386 9.56778 9.87086
internal_count=105 49 56
is_linear=0
shrinkage=0.1


Tree=59
num_leaves=4
num_cat=0
split_feature=0 0 2
split_gain=0.00393665 0.0167849 0.0133676
threshold=2.5000000000000004 3.5000000000000004 2.0000000000000004
decision_type=2 2 2
left_child=2 -2 -1
right_child=1 -3 -4
leaf_value=-0.0045306563886910421 0.006288655559552399 -0.0021759558860005865 0.0029194235067650856
leaf_weight=5.724928170442583 4.0974949896335584 5.4698888957500458 4.1573853939771652
leaf_count=23 26 23 33
internal_value=3.34113e-06 0.00144925 -0.00139649
internal_weight=19.4497 9.56738 9.88231
internal_count=105 49 56
is_linear=0
shrinkage=0.1


Tree=60
num_leaves=4
num_cat=0
split_feature=0 2 2
split_gain=0.00319133 0.0171184 0.0108195
threshold=2.5000000000000004 2.0000000000000004 2.0000000000000004
decision_type=2 2 2
left_child=2 -2 -1
right_child=1 -3 -4
leaf_value=-0.0040763221692169194 0.0052879741360620123 -0.0031955163321878591 0.0026217816483261108
leaf_weight=5.7266119867563265 5.0688497722148878 4.4814900159835815 4.1659386903047562
leaf_count=23 27 22 33
internal_value=3.18565e-06 0.0013071 -0.00125562
internal_weight=19.4429 9.55034 9.89255
internal_count=105 49 56
is_linear=0
shrinkage=0.1


Tree=61
num_leaves=3
num_cat=0
split_feature=0 2
split_gain=0.00371789 0.519062
threshold=3.5000000000000004 2.0000000000000004
decision_type=2 2
left_child=1 -1
right_child=-2 -3
leaf_value=0.01976072078008 -0.0022078465573226519 -0.0187798082618253
leaf_weight=7.1284428238868731 5.4685716927051535 6.8548807352781296
leaf_count=35 23 47
internal_value=2.88173e-06 0.000867449
internal_weight=19.4519 13.9833
internal_count=105 82
is_linear=0
shrinkage=0.1


Tree=62
num_leaves=4
num_cat=0
split_feature=0 2 0
split_gain=0.00447671 0.0235971 0.0159472
threshold=2.5000000000000004 2.0000000000000004 3.5000000000000004
decision_type=2 2 2
left_child=1 -1 -2
right_child=2 -3 -4
leaf_value=-0.005649946997343289 0.0062706761695111718 0.0042769042779370117 -0.0019880060584798161
leaf_weight=5.7205361276865023 4.0857771933078748 4.118710421025753 5.4661040455102921
leaf_count=23 26 33 23
internal_value=2.50331e-06 -0.00149457 0.00154461
internal_weight=19.3911 9.83925 9.55188
internal_count=105 56 49
is_linear=0
shrinkage=0.1


Tree=63
num_leaves=4
num_cat=0
split_feature=0 2 0
split_gain=0.00362845 0.0190888 0.0129649
threshold=2.5000000000000004 2.0000000000000004 3.5000000000000004
decision_type=2 2 2
left_child=1 -1 -2
right_child=2 -3 -4
leaf_value=-0.0050828270640925774 0.0056647406671716527 0.0038369445514579541 -0.0017899798804818842
leaf_weight=5.7228046357631701 4.0713346004486066 4.1311850845813751 5.4638726860284805
leaf_count=23 26 33 23
internal_value=2.36907e-06 -0.0013433 0.00139303
internal_weight=19.3892 9.85399 9.53521
internal_count=105 56 49
is_linear=0
shrinkage=0.1


Tree=64
num_leaves=4
num_cat=0
split_feature=0 2 0
split_gain=0.00294078 0.015444 0.0105367
threshold=2.5000000000000004 2.0000000000000004 3.5000000000000004
decision_type=2 2 2
left_child=1 -1 -2
right_child=2 -3 -4
leaf_value=-0.0045728812313534191 0.0051155764847957124 0.0034433814638368827 -0.0016116062416543478
leaf_weight=5.7247688025236148 4.0582879781723005 4.1423927843570709 5.4618554264307022
leaf_count=23 26 33 23
internal_value=2.23203e-06 -0.00120753 0.00125609
internal_weight=19.3873 9.86716 9.52014
internal_count=105 56 49
is_linear=0
shrinkage=0.1


Tree=65
num_leaves=4
num_cat=0
split_feature=0 2 2
split_gain=0.00238331 0.0124969 0.0109855
threshold=2.5000000000000004 2.0000000000000004 2.0000000000000004
decision_type=2 2 2
left_child=1 -1 -2
right_child=2 -3 -4
leaf_value=-0.0041143000008509022 0.0043428233805582351 0.0030911160905768014 -0.0024670365065037388
leaf_weight=5.7264731824398059 5.0247894376516324 4.1524635851383209 4.481749951839447
leaf_count=23 27 33 22
internal_value=2.08665e-06 -0.00108561 0.00113239
internal_weight=19.3855 9.87894 9.50654
internal_count=105 56 49
is_linear=0
shrinkage=0.1


Tree=66
num_leaves=3
num_cat=0
split_feature=0 2
split_gain=0.00210125 0.487951
threshold=3.5000000000000004 2.0000000000000004
decision_type=2 2
left_child=1 -1
right_child=-2 -3
leaf_value=0.01904875800301959 -0.0016607838898999852 -0.018382236718155025
leaf_weight=7.0865991711616534 5.4610450267791739 6.8482063114643097
leaf_count=35 23 47
internal_value=1.85336e-06 0.00065344
internal_weight=19.3959 13.9348
internal_count=105 82
is_linear=0
shrinkage=0.1


Tree=67
num_leaves=4
num_cat=0
split_feature=2 0 0
split_gain=0.00436875 0.0223268 0.00698991
threshold=2.0000000000000004 2.5000000000000004 2.5000000000000004
decision_type=2 2 2
left_child=1 -1 -2
right_child=2 -3 -4
leaf_value=-0.0056126767792575348 0.0046621077945517243 0.0035337100953344936 -0.0010411712985980523
leaf_weight=5.7206879556179047 4.1078348904848099 5.0028575509786606 4.5063200891017914
leaf_count=23 33 27 22
internal_value=1.53036e-06 -0.00134561 0.00167855
internal_weight=19.3377 10.7235 8.61415
internal_count=105 50 55
is_linear=0
shrinkage=0.1


Tree=68
num_leaves=4
num_cat=0
split_feature=2 0 0
split_gain=0.00353419 0.0180804 0.00563949
threshold=2.0000000000000004 2.5000000000000004 2.5000000000000004
decision_type=2 2 2
left_child=1 -1 -2
right_child=2 -3 -4
leaf_value=-0.0050493177588495234 0.0041813085347516673 0.0031813787210138917 -0.00093688685027168482
leaf_weight=5.7229359000921249 4.1214162111282349 5.0012966841459274 4.5070625245571136
leaf_count=23 33 27 22
internal_value=1.26092e-06 -0.00121089 0.00150783
internal_weight=19.3527 10.7242 8.62848
internal_count=105 50 55
is_linear=0
shrinkage=0.1


Tree=69
num_leaves=4
num_cat=0
split_feature=2 0 0
split_gain=0.00285939 0.0146422 0.00455183
threshold=2.0000000000000004 2.5000000000000004 2.5000000000000004
decision_type=2 2 2
left_child=1 -1 -2
right_child=2 -3 -4
leaf_value=-0.0045427437799344921 0.0037514455990972531 0.0028641030362058224 -0.00084307017971163687
leaf_weight=5.7248825877904892 4.1336162388324738 4.9998777061700821 4.5077297687530518
leaf_count=23 33 27 22
internal_value=1.04275e-06 -0.00108968 0.00135473
internal_weight=19.3661 10.7248 8.64135
internal_count=105 50 55
is_linear=0
shrinkage=0.1


Tree=70
num_leaves=3
num_cat=0
split_feature=0 2
split_gain=0.00318216 0.436882
threshold=3.5000000000000004 2.0000000000000004
decision_type=2 2
left_child=1 -1
right_child=-2 -3
leaf_value=0.018272314178192701 -0.0020443740169008703 -0.017169027656789789
leaf_weight=7.056624963879587 5.46280713379383 6.8586357831954956
leaf_count=35 23 47
internal_value=8.63861e-07 0.000803777
internal_weight=19.3781 13.9153
internal_count=105 82
is_linear=0
shrinkage=0.1


Tree=71
num_leaves=4
num_cat=0
split_feature=2 0 0
split_gain=0.0107405 0.0177892 0.00490644
threshold=2.0000000000000004 2.5000000000000004 2.5000000000000004
decision_type=2 2 2
left_child=1 -1 -2
right_child=2 -3 -4
leaf_value=-0.0059207091815039071 0.0051354161443726287 0.002254156976572462 0.00035881496387579694
leaf_weight=5.7194215804338455 4.0945316478610039 4.9794229567050934 4.5291660726070404
leaf_count=23 33 27 22
internal_value=7.05167e-07 -0.00211599 0.00262675
internal_weight=19.3225 10.6988 8.6237
internal_count=105 50 55
is_linear=0
shrinkage=0.1


Tree=72
num_leaves=4
num_cat=0
split_feature=2 0 0
split_gain=0.00868896 0.0144029 0.00394891
threshold=2.0000000000000004 2.5000000000000004 2.5000000000000004
decision_type=2 2 2
left_child=1 -1 -2
right_child=2 -3 -4
leaf_value=-0.00532626278961283 0.0046041476007539868 0.0020291738750223272 0.00032295102720461961
leaf_weight=5.7218419164419174 4.1094686910510063 4.9784280806779861 4.5289142727851868
leaf_count=23 33 27 22
internal_value=4.79891e-07 -0.00190406 0.00235961
internal_weight=19.3387 10.7003 8.63838
internal_count=105 50 55
is_linear=0
shrinkage=0.1


Tree=73
num_leaves=4
num_cat=0
split_feature=2 0 0
split_gain=0.00703025 0.0116619 0.00318035
threshold=2.0000000000000004 2.5000000000000004 2.5000000000000004
decision_type=2 2 2
left_child=1 -1 -2
right_child=2 -3 -4
leaf_value=-0.0047917839744089259 0.0041294981231859706 0.0018265979998513334 0.00029067330829401372
leaf_weight=5.723934605717659 4.1228838041424751 4.9775268137454987 4.5286875069141388
leaf_count=23 33 27 22
internal_value=3.04444e-07 -0.0017134 0.00212006
internal_weight=19.353 10.7015 8.65157
internal_count=105 50 55
is_linear=0
shrinkage=0.1


Tree=74
num_leaves=4
num_cat=0
split_feature=2 0 0
split_gain=0.00568883 0.00944304 0.0025629
threshold=2.0000000000000004 2.5000000000000004 2.5000000000000004
decision_type=2 2 2
left_child=1 -1 -2
right_child=2 -3 -4
leaf_value=-0.0043111633532309434 0.003705113600484063 0.001644230255700401 0.00026161646144097945
leaf_weight=5.7257486581802368 4.134934589266777 4.9767113775014877 4.5284832417964935
leaf_count=23 33 27 22
internal_value=1.72973e-07 -0.00154187 0.00190515
internal_weight=19.3659 10.7025 8.66342
internal_count=105 50 55
is_linear=0
shrinkage=0.1


Tree=75
num_leaves=4
num_cat=0
split_feature=2 0 0
split_gain=0.00460387 0.00764665 0.00206641
threshold=2.0000000000000004 2.5000000000000004 2.5000000000000004
decision_type=2 2 2
left_child=1 -1 -2
right_child=2 -3 -4
leaf_value=-0.0038789147339627471 0.0033254071923341567 0.0014800339875259486 0.00023546686335950957
leaf_weight=5.7273255437612534 4.1457616835832596 4.9759734570980072 4.5282996296882629
leaf_count=23 33 27 22
internal_value=7.29011e-08 -0.00138753 0.0017123
internal_weight=19.3774 10.7033 8.67406
internal_count=105 50 55
is_linear=0
shrinkage=0.1


Tree=76
num_leaves=3
num_cat=0
split_feature=0 2
split_gain=0.00478449 0.426371
threshold=3.5000000000000004 2.0000000000000004
decision_type=2 2
left_child=1 -1
right_child=-2 -3
leaf_value=0.018307484585054837 -0.0025069659880803726 -0.01669561722421949
leaf_weight=7.0316258519887942 5.4663193672895423 6.8896855562925339
leaf_count=35 23 47
internal_value=-2.45949e-09 0.000984378
internal_weight=19.3876 13.9213
internal_count=105 82
is_linear=0
shrinkage=0.1


Tree=77
num_leaves=4
num_cat=0
split_feature=2 0 0
split_gain=0.0133855 0.0107807 0.00246964
threshold=2.0000000000000004 2.5000000000000004 2.5000000000000004
decision_type=2 2 2
left_child=1 -1 -2
right_child=2 -3 -4
leaf_value=-0.0053261971622733176 0.0047003541330196026 0.0010451207973179357 0.0013174849532651689
leaf_weight=5.7218419164419174 4.1067574918270111 4.9561122804880142 4.547974556684494
leaf_count=23 33 27 22
internal_value=-4.23927e-08 -0.00236899 0.00292269
internal_weight=19.3327 10.678 8.65473
internal_count=105 50 55
is_linear=0
shrinkage=0.1


Tree=78
num_leaves=4
num_cat=0
split_feature=2 0 0
split_gain=0.0108308 0.00872807 0.00198391
threshold=2.0000000000000004 2.5000000000000004 2.5000000000000004
decision_type=2 2 2
left_child=1 -1 -2
right_child=2 -3 -4
leaf_value=-0.0047917298256154499 0.0042154876111487544 0.00094069896752618342 0.0011859896326382967
leaf_weight=5.723934605717659 4.1204484701156616 4.9556529521942139 4.5470599830150604
leaf_count=23 33 27 22
internal_value=-1.70831e-07 -0.00213171 0.00262618
internal_weight=19.3471 10.6796 8.66751
internal_count=105 50 55
is_linear=0
shrinkage=0.1


Tree=79
num_leaves=4
num_cat=0
split_feature=2 0 0
split_gain=0.00876465 0.00706669 0.00159506
threshold=2.0000000000000004 2.5000000000000004 2.5000000000000004
decision_type=2 2 2
left_child=1 -1 -2
right_child=2 -3 -4
leaf_value=-0.004311103758577739 0.0037820187356820828 0.00084670494171535228 0.0010675917067111667
leaf_weight=5.7257490009069443 4.1327468454837799 4.9552381038665771 4.5462349951267242
leaf_count=23 33 27 22
internal_value=-2.59539e-07 -0.00191824 0.00236014
internal_weight=19.36 10.681 8.67898
internal_count=105 50 55
is_linear=0
shrinkage=0.1


Tree=80
num_leaves=4
num_cat=0
split_feature=2 0 0
split_gain=0.00709337 0.00572189 0.0012834
threshold=2.0000000000000004 2.5000000000000004 2.5000000000000004
decision_type=2 2 2
left_child=1 -1 -2
right_child=2 -3 -4
leaf_value=-0.0038788668614673084 0.003394236166057506 0.00076209669808741771 0.00096100044737994564
leaf_weight=5.7273255437612534 4.1437957137823105 4.9548638463020325 4.5454908907413483
leaf_count=23 33 27 22
internal_value=-3.20462e-07 -0.00172619 0.00212138
internal_weight=19.3715 10.6822 8.68929
internal_count=105 50 55
is_linear=0
shrinkage=0.1


Tree=81
num_leaves=4
num_cat=0
split_feature=2 0 0
split_gain=0.00574128 0.00463322 0.00103335
threshold=2.0000000000000004 2.5000000000000004 2.5000000000000004
decision_type=2 2 2
left_child=1 -1 -2
right_child=2 -3 -4
leaf_value=-0.0034900948172978379 0.003047105796216666 0.00068593578492444221 0.00086502939457962105
leaf_weight=5.7286995351314545 4.1537244021892548 4.954526424407959 4.5448203086853027
leaf_count=23 33 27 22
internal_value=-3.59963e-07 -0.00155339 0.00190701
internal_weight=19.3818 10.6832 8.69854
internal_count=105 50 55
is_linear=0
shrinkage=0.1


Tree=82
num_leaves=3
num_cat=0
split_feature=0 2
split_gain=0.00563286 0.416008
threshold=3.5000000000000004 2.0000000000000004
decision_type=2 2
left_child=1 -1
right_child=-2 -3
leaf_value=0.018230866402694095 -0.0027197368723279368 -0.016342382449276393
leaf_weight=7.0108066797256487 5.4689155519008628 6.9112617969512939
leaf_count=35 23 47
internal_value=-3.82385e-07 0.00106784
internal_weight=19.391 13.9221
internal_count=105 82
is_linear=0
shrinkage=0.1


Tree=83
num_leaves=4
num_cat=0
split_feature=2 0 0
split_gain=0.0148942 0.00750154 0.00139737
threshold=2.0000000000000004 2.5000000000000004 2.5000000000000004
decision_type=2 2 2
left_child=1 -1 -2
right_child=2 -3 -4
leaf_value=-0.0049682137474451708 0.0044116463276864751 0.00035223988622017603 0.001870386161434561
leaf_weight=5.7232525795698166 4.1149011701345444 4.9351863116025925 4.5633980631828308
leaf_count=23 33 27 22
internal_value=-3.70665e-07 -0.00250468 0.00307535
internal_weight=19.3367 10.6584 8.6783
internal_count=105 50 55
is_linear=0
shrinkage=0.1


Tree=84
num_leaves=4
num_cat=0
split_feature=2 0 0
split_gain=0.0120529 0.00607311 0.00112018
threshold=2.0000000000000004 2.5000000000000004 2.5000000000000004
decision_type=2 2 2
left_child=1 -1 -2
right_child=2 -3 -4
leaf_value=-0.0044698220017452125 0.003957426387982241 0.00031702082146608303 0.001683850149337711
leaf_weight=5.725156769156456 4.127763569355011 4.935034453868866 4.5621062219142914
leaf_count=23 33 27 22
internal_value=-4.49575e-07 -0.0022538 0.00276382
internal_weight=19.3501 10.6602 8.68987
internal_count=105 50 55
is_linear=0
shrinkage=0.1


Tree=85
num_leaves=4
num_cat=0
split_feature=2 0 0
split_gain=0.00975454 0.00491701 0.00089891
threshold=2.0000000000000004 2.5000000000000004 2.5000000000000004
decision_type=2 2 2
left_child=1 -1 -2
right_child=2 -3 -4
leaf_value=-0.004021607371663541 0.0035511930059222278 0.00028532797938450567 0.0015158735200993239
leaf_weight=5.7268107682466507 4.139318436384201 4.9348976165056229 4.5609398782253265
leaf_count=23 33 27 22
internal_value=-4.95475e-07 -0.00202809 0.00248422
internal_weight=19.362 10.6617 8.70026
internal_count=105 50 55
is_linear=0
shrinkage=0.1


Tree=86
num_leaves=4
num_cat=0
split_feature=2 0 0
split_gain=0.0078952 0.00398125 0.000722018
threshold=2.0000000000000004 2.5000000000000004 2.5000000000000004
decision_type=2 2 2
left_child=1 -1 -2
right_child=2 -3 -4
leaf_value=-0.0036184960980383592 0.0031876246670697085 0.00025680148583122933 0.0013646213173246458
leaf_weight=5.7282505631446838 4.1497009992599487 4.9347741454839706 4.5598872005939484
leaf_count=23 33 27 22
internal_value=-5.25816e-07 -0.00182504 0.00223319
internal_weight=19.3726 10.663 8.70959
internal_count=105 50 55
is_linear=0
shrinkage=0.1


Tree=87
num_leaves=4
num_cat=0
split_feature=2 0 0
split_gain=0.00639076 0.0032237 0.00058044
threshold=2.0000000000000004 2.5000000000000004 2.5000000000000004
decision_type=2 2 2
left_child=1 -1 -2
right_child=2 -3 -4
leaf_value=-0.0032558829030740625 0.0028620734445667455 0.00023112901216542576 0.0012284263086004988
leaf_weight=5.7295066565275192 4.1590312421321869 4.9346631467342377 4.558937132358551
leaf_count=23 33 27 22
internal_value=-5.30786e-07 -0.00164233 0.00200778
internal_weight=19.3821 10.6642 8.71797
internal_count=105 50 55
is_linear=0
shrinkage=0.1


Tree=88
num_leaves=3
num_cat=0
split_feature=0 2
split_gain=0.0059529 0.405849
threshold=3.5000000000000004 2.0000000000000004
decision_type=2 2
left_child=1 -1
right_child=-2 -3
leaf_value=0.018093170698583062 -0.0027952885942602677 -0.016057872272709155
leaf_weight=6.9925265759229678 5.4710732400417319 6.927066907286644
leaf_count=35 23 47
internal_value=-5.26402e-07 0.00109795
internal_weight=19.3907 13.9196
internal_count=105 82
is_linear=0
shrinkage=0.1


Tree=89
num_leaves=4
num_cat=0
split_feature=2 0 0
split_gain=0.0156437 0.0058413 0.000895072
threshold=2.0000000000000004 2.5000000000000004 2.5000000000000004
decision_type=2 2 2
left_child=1 -1 -2
right_child=2 -3 -4
leaf_value=-0.0047433941601043401 0.0042146027044473863 -4.3664543625780982e-05 0.002182872511153055
leaf_weight=5.724120020866394 4.1204735487699509 4.9157794564962387 4.57679682970047
leaf_count=23 33 27 22
internal_value=-5.0058e-07 -0.00257205 0.00314544
internal_weight=19.3372 10.6399 8.69727
internal_count=105 50 55
is_linear=0
shrinkage=0.1


Tree=90
num_leaves=4
num_cat=0
split_feature=2 0 0
split_gain=0.0126602 0.00472898 0.000716062
threshold=2.0000000000000004 2.5000000000000004 2.5000000000000004
decision_type=2 2 2
left_child=1 -1 -2
right_child=2 -3 -4
leaf_value=-0.0042676411697395019 0.0037812268845344704 -3.9298730874155619e-05 0.0019652671810768889
leaf_weight=5.7259097397327423 4.1327689737081528 4.9157977849245071 4.5752916932106018
leaf_count=23 33 27 22
internal_value=-5.53236e-07 -0.00231441 0.00282711
internal_weight=19.3498 10.6417 8.70806
internal_count=105 50 55
is_linear=0
shrinkage=0.1


Tree=91
num_leaves=4
num_cat=0
split_feature=2 0 0
split_gain=0.0102467 0.00382876 0.000573572
threshold=2.0000000000000004 2.5000000000000004 2.5000000000000004
decision_type=2 2 2
left_child=1 -1 -2
right_child=2 -3 -4
leaf_value=-0.0038397807360162958 0.0033935349734141975 -3.5367648166797363e-05 0.0017692912568851617
leaf_weight=5.7274657189846039 4.1438158750534058 4.9158142358064651 4.5739320516586304
leaf_count=23 33 27 22
internal_value=-5.82161e-07 -0.00208264 0.00254134
internal_weight=19.361 10.6433 8.71775
internal_count=105 50 55
is_linear=0
shrinkage=0.1


Tree=92
num_leaves=4
num_cat=0
split_feature=2 0 0
split_gain=0.00829398 0.00310008 0.000459939
threshold=2.0000000000000004 2.5000000000000004 2.5000000000000004
decision_type=2 2 2
left_child=1 -1 -2
right_child=2 -3 -4
leaf_value=-0.0034549391105645612 0.0030464768503416033 -3.1829452914590933e-05 0.0015928186311654415
leaf_weight=5.7288215458393097 4.1537425965070724 4.9158291667699814 4.5727038681507111
leaf_count=23 33 27 22
internal_value=-5.90013e-07 -0.00187411 0.00228475
internal_weight=19.3711 10.6447 8.72645
internal_count=105 50 55
is_linear=0
shrinkage=0.1


Tree=93
num_leaves=4
num_cat=0
split_feature=2 0 0
split_gain=0.00671387 0.00251019 0.00036919
threshold=2.0000000000000004 2.5000000000000004 2.5000000000000004
decision_type=2 2 2
left_child=1 -1 -2
right_child=2 -3 -4
leaf_value=-0.0031087648865889932 0.0027356228475114942 -2.8647157493481932e-05 0.0014339001966834001
leaf_weight=5.7300060093402863 4.1626642048358917 4.9158424884080887 4.5715954005718231
leaf_count=23 33 27 22
internal_value=-5.8697e-07 -0.00168649 0.00205429
internal_weight=19.3801 10.6458 8.73426
internal_count=105 50 55
is_linear=0
shrinkage=0.1


Tree=94
num_leaves=3
num_cat=0
split_feature=0 2
split_gain=0.00596333 0.395929
threshold=3.5000000000000004 2.0000000000000004
decision_type=2 2
left_child=1 -1
right_child=-2 -3
leaf_value=0.017923154888387915 -0.0027970240681888161 -0.015812993454213189
leaf_weight=6.9758318215608615 5.4729954451322547 6.9393480271100998
leaf_count=35 23 47
internal_value=-5.69971e-07 0.00109931
internal_weight=19.3882 13.9152
internal_count=105 82
is_linear=0
shrinkage=0.1


Tree=95
num_leaves=4
num_cat=0
split_feature=2 0 0
split_gain=0.0159234 0.00493738 0.000643998
threshold=2.0000000000000004 2.5000000000000004 2.5000000000000004
decision_type=2 2 2
left_child=1 -1 -2
right_child=2 -3 -4
leaf_value=-0.0045937962964809134 0.0040747706467900487 -0.00026870459051522416 0.0023529148781276932
leaf_weight=5.7246896326541901 4.1244347468018532 4.897368460893631 4.5889535844326019
leaf_count=23 33 27 22
internal_value=-5.41007e-07 -0.00259968 0.00316795
internal_weight=19.3354 10.6221 8.71339
internal_count=105 50 55
is_linear=0
shrinkage=0.1


Tree=96
num_leaves=4
num_cat=0
split_feature=2 0 0
split_gain=0.0128872 0.00399719 0.00051434
threshold=2.0000000000000004 2.5000000000000004 2.5000000000000004
decision_type=2 2 2
left_child=1 -1 -2
right_child=2 -3 -4
leaf_value=-0.0041331057948540287 0.0036561699472778438 -0.00024183044037724509 0.0021184156441629107
leaf_weight=5.7264046370983124 4.1363276839256287 4.8974777162075043 4.5873305201530457
leaf_count=23 33 27 22
internal_value=-5.79178e-07 -0.00233928 0.00284754
internal_weight=19.3475 10.6239 8.72366
internal_count=105 50 55
is_linear=0
shrinkage=0.1


Tree=97
num_leaves=4
num_cat=0
split_feature=2 0 0
split_gain=0.0104308 0.00323627 0.00041135
threshold=2.0000000000000004 2.5000000000000004 2.5000000000000004
decision_type=2 2 2
left_child=1 -1 -2
right_child=2 -3 -4
leaf_value=-0.0037187695396729368 0.0032816007466725593 -0.00021763969685174801 0.001907223267266027
leaf_weight=5.7278965264558792 4.1470136493444443 4.8975756615400314 4.5858639180660248
leaf_count=23 33 27 22
internal_value=-5.95328e-07 -0.002105 0.00255988
internal_weight=19.3583 10.6255 8.73288
internal_count=105 50 55
is_linear=0
shrinkage=0.1


Tree=98
num_leaves=4
num_cat=0
split_feature=2 0 0
split_gain=0.00844332 0.00262035 0.0003294
threshold=2.0000000000000004 2.5000000000000004 2.5000000000000004
decision_type=2 2 2
left_child=1 -1 -2
right_child=2 -3 -4
leaf_value=-0.0033460950135351269 0.0029462368780825404 -0.00019587578808949867 0.001717020441294379
leaf_weight=5.7291975170373917 4.1566163152456284 4.8976639062166214 4.5845389068126678
leaf_count=23 33 27 22
internal_value=-6.01493e-07 -0.00189424 0.00230154
internal_weight=19.368 10.6269 8.74116
internal_count=105 50 55
is_linear=0
shrinkage=0.1


Tree=99
num_leaves=4
num_cat=0
split_feature=2 0 0
split_gain=0.006835 0.00212175 0.000264073
threshold=2.0000000000000004 2.5000000000000004 2.5000000000000004
decision_type=2 2 2
left_child=1 -1 -2
right_child=2 -3 -4
leaf_value=-0.0030108469098841925 0.0026458186123771931 -0.00017628346207403296 0.0015457504603620771
leaf_weight=5.730334684252739 4.1652468144893646 4.8977433890104294 4.5833422839641571
leaf_count=23 33 27 22
internal_value=-5.86305e-07 -0.00170459 0.0020695
internal_weight=19.3767 10.6281 8.74859
internal_count=105 50 55
is_linear=0
shrinkage=0.1


end of trees

feature_importances:
score=178
pattern_code=106

parameters:
[boosting: gbdt]
[objective: binary]
[metric: binary_logloss]
[tree_learner: serial]
[device_type: cpu]
[data_sample_strategy: bagging]
[data: ]
[valid: ]
[num_iterations: 100]
[learning_rate: 0.1]
[num_leaves: 31]
[num_threads: 0]
[seed: 42]
[deterministic: 0]
[force_col_wise: 0]
[force_row_wise: 0]
[histogram_pool_size: -1]
[max_depth: -1]
[min_data_in_leaf: 20]
[min_sum_hessian_in_leaf: 0.001]
[bagging_fraction: 1]
[pos_bagging_fraction: 1]
[neg_bagging_fraction: 1]
[bagging_freq: 0]
[bagging_seed: 400]
[bagging_by_query: 0]
[feature_fraction: 1]
[feature_fraction_bynode: 1]
[feature_fraction_seed: 30056]
[extra_trees: 0]
[extra_seed: 12879]
[early_stopping_round: 0]
[early_stopping_min_delta: 0]
[first_metric_only: 0]
[max_delta_step: 0]
[lambda_l1: 0]
[lambda_l2: 0]
[linear_lambda: 0]
[min_gain_to_split: 0]
[drop_rate: 0.1]
[max_drop: 50]
[skip_drop: 0.5]
[xgboost_dart_mode: 0]
[uniform_drop: 0]
[drop_seed: 17869]
[top_rate: 0.2]
[other_rate: 0.1]
[min_data_per_group: 100]
[max_cat_threshold: 32]
[cat_l2: 10]
[cat_smooth: 10]
[max_cat_to_onehot: 4]
[top_k: 20]
[monotone_constraints: ]
[monotone_constraints_method: basic]
[monotone_penalty: 0]
[feature_contri: ]
[forcedsplits_filename: ]
[refit_decay_rate: 0.9]
[cegb_tradeoff: 1]
[cegb_penalty_split: 0]
[cegb_penalty_feature_lazy: ]
[cegb_penalty_feature_coupled: ]
[path_smooth: 0]
[interaction_constraints: ]
[verbosity: -1]
[saved_feature_importance_type: 0]
[use_quantized_grad: 0]
[num_grad_quant_bins: 4]
[quant_train_renew_leaf: 0]
[stochastic_rounding: 1]
[linear_tree: 0]
[max_bin: 255]
[max_bin_by_feature: ]
[min_data_in_bin: 3]
[bin_construct_sample_cnt: 200000]
[data_random_seed: 175]
[is_enable_sparse: 1]
[enable_bundle: 1]
[use_missing: 1]
[zero_as_missing: 0]
[feature_pre_filter: 1]
[pre_partition: 0]
[two_round: 0]
[header: 0]
[label_column: ]
[weight_column: ]
[group_column: ]
[ignore_column: ]
[categorical_feature: ]
[forcedbins_filename: ]
[precise_float_parser: 0]
[parser_config_file: ]
[objective_seed: 16083]
[num_class: 1]
[is_unbalance: 0]
[scale_pos_weight: 1]
[sigmoid: 1]
[boost_from_average: 1]
[reg_sqrt: 0]
[alpha: 0.9]
[fair_c: 1]
[poisson_max_delta_step: 0.7]
[tweedie_variance_power: 1.5]
[lambdarank_truncation_level: 30]
[lambdarank_norm: 1]
[label_gain: ]
[lambdarank_position_bias_regularization: 0]
[eval_at: ]
[multi_error_top_k: 1]
[auc_mu_weights: ]
[num_machines: 1]
[local_listen_port: 12400]
[time_out: 120]
[machine_list_filename: ]
[machines: ]
[gpu_platform_id: -1]
[gpu_device_id: -1]
[gpu_use_dp: 0]
[num_gpu: 1]

end of parameters

pandas_categorical:[]
